FANN_FLO_2.1
num_layers=3
learning_rate=0.700000
connection_rate=1.000000
network_type=0
learning_momentum=0.000000
training_algorithm=2
train_error_function=0
train_stop_function=0
cascade_output_change_fraction=0.010000
quickprop_decay=-0.000100
quickprop_mu=1.750000
rprop_increase_factor=1.200000
rprop_decrease_factor=0.500000
rprop_delta_min=0.000000
rprop_delta_max=50.000000
rprop_delta_zero=0.100000
cascade_output_stagnation_epochs=12
cascade_candidate_change_fraction=0.010000
cascade_candidate_stagnation_epochs=12
cascade_max_out_epochs=150
cascade_min_out_epochs=50
cascade_max_cand_epochs=150
cascade_min_cand_epochs=50
cascade_num_candidate_groups=2
bit_fail_limit=3.49999994039535520000e-001
cascade_candidate_limit=1.00000000000000000000e+003
cascade_weight_multiplier=4.00000005960464480000e-001
cascade_activation_functions_count=10
cascade_activation_functions=3 5 7 8 10 11 14 15 16 17 
cascade_activation_steepnesses_count=4
cascade_activation_steepnesses=2.50000000000000000000e-001 5.00000000000000000000e-001 7.50000000000000000000e-001 1.00000000000000000000e+000 
layer_sizes=11 5 2 
scale_included=0
neurons (num_inputs, activation_function, activation_steepness)=(0, 0, 0.00000000000000000000e+000) (0, 0, 0.00000000000000000000e+000) (0, 0, 0.00000000000000000000e+000) (0, 0, 0.00000000000000000000e+000) (0, 0, 0.00000000000000000000e+000) (0, 0, 0.00000000000000000000e+000) (0, 0, 0.00000000000000000000e+000) (0, 0, 0.00000000000000000000e+000) (0, 0, 0.00000000000000000000e+000) (0, 0, 0.00000000000000000000e+000) (0, 0, 0.00000000000000000000e+000) (11, 5, 5.00000000000000000000e-001) (11, 5, 5.00000000000000000000e-001) (11, 5, 5.00000000000000000000e-001) (11, 5, 5.00000000000000000000e-001) (0, 5, 5.00000000000000000000e-001) (5, 5, 5.00000000000000000000e-001) (0, 5, 5.00000000000000000000e-001) 
connections (connected_to_neuron, weight)=(0, -5.84175050258636470000e-001) (1, 1.84184432029724120000e-001) (2, -1.90968406200408940000e+000) (3, 3.44517183303833010000e+000) (4, 2.17105984687805180000e+000) (5, 1.09367341995239260000e+001) (6, 1.43000856041908260000e-001) (7, 1.30100317001342770000e+001) (8, 2.81707954406738280000e+000) (9, -1.38143119812011720000e+001) (10, -1.59976668655872340000e-002) (0, 6.26521587371826170000e-001) (1, 1.08037018775939940000e+000) (2, 1.66184008121490480000e+000) (3, -1.37495255470275880000e+000) (4, 7.37289339303970340000e-002) (5, -1.68731999397277830000e+000) (6, 1.81018519401550290000e+000) (7, 4.11697578430175780000e+000) (8, -2.25275540351867680000e+000) (9, 1.98805212974548340000e+000) (10, -2.06251926720142360000e-002) (0, 3.22152197360992430000e-001) (1, 1.02253615856170650000e+000) (2, 6.43843233585357670000e-001) (3, 2.28337407112121580000e+000) (4, -5.79619891941547390000e-002) (5, -1.22301459312438960000e+000) (6, -3.57663345336914060000e+000) (7, 1.91123733520507810000e+001) (8, 3.52807712554931640000e+000) (9, -7.65198755264282230000e+000) (10, -2.42896392941474910000e-001) (0, -1.21024986267089840000e+002) (1, -4.65859222412109370000e+002) (2, 1.18018150329589840000e+001) (3, 5.77069282531738280000e-001) (4, 1.46682174682617190000e+002) (5, -2.95782592773437500000e+002) (6, 1.49994775390625000000e+003) (7, 1.49980810546875000000e+003) (8, -9.52884521484375000000e+002) (9, 1.49989978027343750000e+003) (10, -9.21522331237792970000e+000) (11, 1.23877608776092530000e+000) (12, 1.50069415569305420000e+000) (13, -1.91895198822021480000e+000) (14, 8.60992223024368290000e-002) (15, 3.26322317123413090000e-002) 
